<?xml version="1.0"?>
<opencv_storage>
<stage20>
  <maxWeakCount>15</maxWeakCount>
  <stageThreshold>-1.5327491760253906e+00</stageThreshold>
  <weakClassifiers>
    <_>
      <internalNodes>
        0 -1 11073 -2.9247019439935684e-02</internalNodes>
      <leafValues>
        9.2198580503463745e-02 -6.2670713663101196e-01</leafValues></_>
    <_>
      <internalNodes>
        0 -1 20124 -7.0353128015995026e-02</internalNodes>
      <leafValues>
        1.3090269267559052e-01 -6.3117891550064087e-01</leafValues></_>
    <_>
      <internalNodes>
        0 -1 16163 -1.0811102110892534e-03</internalNodes>
      <leafValues>
        3.3652269840240479e-01 -3.0364781618118286e-01</leafValues></_>
    <_>
      <internalNodes>
        0 -1 11775 -6.7021548748016357e-02</internalNodes>
      <leafValues>
        -7.2284859418869019e-01 1.4466160535812378e-01</leafValues></_>
    <_>
      <internalNodes>
        0 -1 5104 -6.8057440221309662e-03</internalNodes>
      <leafValues>
        7.4655616283416748e-01 -1.0604404658079147e-01</leafValues></_>
    <_>
      <internalNodes>
        0 -1 20438 1.0286939330399036e-02</internalNodes>
      <leafValues>
        -2.0092080533504486e-01 3.7720721960067749e-01</leafValues></_>
    <_>
      <internalNodes>
        0 -1 19261 -3.1768895685672760e-02</internalNodes>
      <leafValues>
        3.4889161586761475e-01 -2.4095836281776428e-01</leafValues></_>
    <_>
      <internalNodes>
        0 -1 24687 2.1955033764243126e-02</internalNodes>
      <leafValues>
        1.2059348076581955e-01 -6.9771593809127808e-01</leafValues></_>
    <_>
      <internalNodes>
        0 -1 11098 -3.1874575652182102e-03</internalNodes>
      <leafValues>
        4.9293574690818787e-01 -1.9394080340862274e-01</leafValues></_>
    <_>
      <internalNodes>
        0 -1 13782 3.0359034426510334e-03</internalNodes>
      <leafValues>
        1.9699499011039734e-01 -4.2206865549087524e-01</leafValues></_>
    <_>
      <internalNodes>
        0 -1 14567 -1.9361028447747231e-02</internalNodes>
      <leafValues>
        6.8971091508865356e-01 -1.4442674815654755e-01</leafValues></_>
    <_>
      <internalNodes>
        0 -1 22315 1.2981861364096403e-03</internalNodes>
      <leafValues>
        -1.9203785061836243e-01 4.4050520658493042e-01</leafValues></_>
    <_>
      <internalNodes>
        0 -1 18468 -1.4736706390976906e-02</internalNodes>
      <leafValues>
        3.0888918042182922e-01 -2.9248464107513428e-01</leafValues></_>
    <_>
      <internalNodes>
        0 -1 22315 -1.5556974103674293e-03</internalNodes>
      <leafValues>
        4.1166356205940247e-01 -2.1657329797744751e-01</leafValues></_>
    <_>
      <internalNodes>
        0 -1 420 -6.7372117191553116e-03</internalNodes>
      <leafValues>
        -6.6091656684875488e-01 1.1625625938177109e-01</leafValues></_></weakClassifiers></stage20>
</opencv_storage>
