<?xml version="1.0"?>
<opencv_storage>
<stage18>
  <maxWeakCount>7</maxWeakCount>
  <stageThreshold>-1.4204399585723877e+00</stageThreshold>
  <weakClassifiers>
    <_>
      <internalNodes>
        0 -1 13072 -1.0832533985376358e-01</internalNodes>
      <leafValues>
        -2.4752475321292877e-01 -9.3220341205596924e-01</leafValues></_>
    <_>
      <internalNodes>
        0 -1 1949 -2.1312324330210686e-02</internalNodes>
      <leafValues>
        9.4689033925533295e-02 -6.3563048839569092e-01</leafValues></_>
    <_>
      <internalNodes>
        0 -1 24032 -2.6211468502879143e-03</internalNodes>
      <leafValues>
        5.2091205120086670e-01 -2.4875089526176453e-01</leafValues></_>
    <_>
      <internalNodes>
        0 -1 22693 -3.0654724687337875e-02</internalNodes>
      <leafValues>
        -7.2833275794982910e-01 1.9023115932941437e-01</leafValues></_>
    <_>
      <internalNodes>
        0 -1 22392 1.4619341818615794e-03</internalNodes>
      <leafValues>
        -3.5891571640968323e-01 3.7912586331367493e-01</leafValues></_>
    <_>
      <internalNodes>
        0 -1 1233 1.3026542030274868e-02</internalNodes>
      <leafValues>
        -2.3932927846908569e-01 4.2210888862609863e-01</leafValues></_>
    <_>
      <internalNodes>
        0 -1 6134 -1.9912127405405045e-02</internalNodes>
      <leafValues>
        1.1948003619909286e-01 -9.0335637331008911e-01</leafValues></_></weakClassifiers></stage18>
</opencv_storage>
