<?xml version="1.0"?>
<opencv_storage>
<stage11>
  <maxWeakCount>10</maxWeakCount>
  <stageThreshold>-3.2004076242446899e-01</stageThreshold>
  <weakClassifiers>
    <_>
      <internalNodes>
        0 -1 23870 3.9596017450094223e-03</internalNodes>
      <leafValues>
        5.7142856530845165e-03 7.9199999570846558e-01</leafValues></_>
    <_>
      <internalNodes>
        0 -1 11070 -6.7222930490970612e-02</internalNodes>
      <leafValues>
        7.7567934989929199e-01 -1.8400293588638306e-01</leafValues></_>
    <_>
      <internalNodes>
        0 -1 11522 -4.4101737439632416e-03</internalNodes>
      <leafValues>
        5.1307183504104614e-01 -2.7850931882858276e-01</leafValues></_>
    <_>
      <internalNodes>
        0 -1 21337 -3.6652777343988419e-02</internalNodes>
      <leafValues>
        3.2511031627655029e-01 -4.4712808728218079e-01</leafValues></_>
    <_>
      <internalNodes>
        0 -1 11818 -1.9455089932307601e-03</internalNodes>
      <leafValues>
        6.1757880449295044e-01 -2.5679895281791687e-01</leafValues></_>
    <_>
      <internalNodes>
        0 -1 22361 5.6514525786042213e-03</internalNodes>
      <leafValues>
        -1.9381538033485413e-01 7.8309667110443115e-01</leafValues></_>
    <_>
      <internalNodes>
        0 -1 15908 1.3611812144517899e-02</internalNodes>
      <leafValues>
        -2.4300757050514221e-01 5.3365755081176758e-01</leafValues></_>
    <_>
      <internalNodes>
        0 -1 11255 -1.3868415728211403e-02</internalNodes>
      <leafValues>
        8.1256902217864990e-01 -1.6348992288112640e-01</leafValues></_>
    <_>
      <internalNodes>
        0 -1 9163 9.4605393707752228e-02</internalNodes>
      <leafValues>
        2.4242214858531952e-01 -7.1783202886581421e-01</leafValues></_>
    <_>
      <internalNodes>
        0 -1 19476 2.1760507661383599e-04</internalNodes>
      <leafValues>
        -3.5032853484153748e-01 5.0679361820220947e-01</leafValues></_></weakClassifiers></stage11>
</opencv_storage>
