<?xml version="1.0"?>
<opencv_storage>
<stage9>
  <maxWeakCount>8</maxWeakCount>
  <stageThreshold>-6.3304114341735840e-01</stageThreshold>
  <weakClassifiers>
    <_>
      <internalNodes>
        0 -1 8120 -2.2428756952285767e-01</internalNodes>
      <leafValues>
        8.0000001192092896e-01 -2.3529412224888802e-02</leafValues></_>
    <_>
      <internalNodes>
        0 -1 6190 -3.2768361270427704e-02</internalNodes>
      <leafValues>
        3.3380514383316040e-01 -5.3607350587844849e-01</leafValues></_>
    <_>
      <internalNodes>
        0 -1 12968 3.9928071200847626e-03</internalNodes>
      <leafValues>
        -2.8897520899772644e-01 6.1530560255050659e-01</leafValues></_>
    <_>
      <internalNodes>
        0 -1 19703 -1.8331396859139204e-03</internalNodes>
      <leafValues>
        5.6954073905944824e-01 -3.0652225017547607e-01</leafValues></_>
    <_>
      <internalNodes>
        0 -1 17664 2.1235109306871891e-04</internalNodes>
      <leafValues>
        -2.8754594922065735e-01 6.3257849216461182e-01</leafValues></_>
    <_>
      <internalNodes>
        0 -1 10506 1.2022364884614944e-02</internalNodes>
      <leafValues>
        -1.9248618185520172e-01 7.6592493057250977e-01</leafValues></_>
    <_>
      <internalNodes>
        0 -1 23302 -4.6802163706161082e-04</internalNodes>
      <leafValues>
        -5.4571896791458130e-01 3.5632213950157166e-01</leafValues></_>
    <_>
      <internalNodes>
        0 -1 10732 1.2481658719480038e-02</internalNodes>
      <leafValues>
        -2.2410944104194641e-01 7.9099321365356445e-01</leafValues></_></weakClassifiers></stage9>
</opencv_storage>
